tree
version=v4
num_class=1
num_tree_per_iteration=1
label_index=0
max_feature_idx=21
objective=regression
feature_names=lineup_position_score time_of_day_score home_away_score recent_form_score wind_score umpire_score bullpen_fatigue_score monthly_splits_score platoon_score humidity_and_elevation_score team_momentum_score vegas_odds_score park_factors_score pitch_mix_score statcast_metrics_score defensive_positions_score rest_day_score temperature_score matchup_score park_platoon matchup_recent vegas_park
feature_infos=[0.72999999999999998:2.5800000000000001] none [-2:2] none none none none none [-0.37:0.2299999999999999] [-0.14000000000000001:0.28000000000000003] none [-0.40000000000000002:-0.29999999999999999] none none none [-0.70601120896069047:-0.28371164836173801] [-2:2] none [-2:2] [-0.0092499999999999995:0.0057499999999999982] [-2:2] [-0.010000000000000002:-0.0074999999999999997]
tree_sizes=777 816 744 743 821 743 826 827 747 746 825 746 834 750 831 832 835 828 750 835 822 830 746 753 747 841 922 838 838 841 836 841 842 751 841 850 848 852 928 842 922 825 919 925 834 839 836 834 830 843 753 750 744 757 751 746

Tree=0
num_leaves=8
num_cat=0
split_feature=18 2 2 15 2 16 2
split_gain=44.5804 4.99654 3.14107 2.58144 0.966389 2.38696 1.02956
threshold=0.92068466730954679 0.52249989789489193 -0.41483424384167061 -0.3374068035804707 -0.16382607734670937 0.19168520750285797 0.10863517021547421
decision_type=2 2 2 2 2 2 2
left_child=-1 2 -2 4 -4 6 -6
right_child=1 -3 3 -5 5 -7 -8
leaf_value=2.302497915395282 2.3845140670575069 2.3426762575374531 2.359722926906525 2.3498680466433424 2.3864814706630191 2.3599436834791803 2.3713518727542109
leaf_weight=34 26 21 22 22 22 27 23
leaf_count=34 26 21 22 22 22 27 23
internal_value=2.35458 2.36544 2.36881 2.36529 2.36889 2.3717 2.37875
internal_weight=197 163 142 116 94 72 45
internal_count=197 163 142 116 94 72 45
is_linear=0
shrinkage=1


Tree=1
num_leaves=8
num_cat=0
split_feature=18 2 2 15 0 2 0
split_gain=40.2338 4.50937 2.83482 2.32975 2.3657 0.708884 2.81324
threshold=0.92068466730954679 0.52249989789489193 -0.41483424384167061 -0.3374068035804707 1.8450000000000002 0.17457100242187967 1.1650000000000003
decision_type=2 2 2 2 2 2 2
left_child=-1 2 -2 4 5 6 -4
right_child=1 -3 3 -5 -6 -7 -8
leaf_value=-0.050831904788227647 0.027083437775190063 -0.012662481379118705 0.0015029539835681631 -0.0058302812955596233 0.0006592035852372646 0.025205369151773904 0.027088047182630928
leaf_weight=34 26 21 22 22 30 21 21
leaf_count=34 26 21 22 22 30 21 21
internal_value=-0.00135681 0.00896315 0.0121613 0.0088167 0.0122447 0.0176754 0.013998
internal_weight=197 163 142 116 94 64 43
internal_count=197 163 142 116 94 64 43
is_linear=0
shrinkage=0.05


Tree=2
num_leaves=7
num_cat=0
split_feature=20 2 15 8 16 11
split_gain=36.3412 5.14295 2.6143 3.89726 3.51433 3.44513
threshold=-0.25649350649350633 0.40787670916605873 -0.3374068035804707 0.086249999999999924 0.19168520750285797 -0.37499999999999994
decision_type=2 2 2 2 2 2
left_child=1 2 3 -1 5 -5
right_child=-2 -3 -4 4 -6 -7
leaf_value=0.029459710681112486 -0.056363139817347897 -0.010987293129437603 -0.0021094280712563415 0.0049353546036096912 -0.0050575791569105509 0.031590300358154556
leaf_weight=32 26 32 29 27 29 22
leaf_count=32 26 32 29 27 29 22
internal_value=-0.00128897 0.00708488 0.0112454 0.0147662 0.00873809 0.0169029
internal_weight=197 171 139 110 78 49
internal_count=197 171 139 110 78 49
is_linear=0
shrinkage=0.05


Tree=3
num_leaves=7
num_cat=0
split_feature=20 2 8 16 11 2
split_gain=32.7979 4.64903 2.52085 2.27142 6.88696 0.600699
threshold=-0.25649350649350633 0.38585694920575386 0.086249999999999924 0.19168520750285797 -0.37499999999999994 -0.10141403248879903
decision_type=2 2 2 2 2 2
left_child=1 2 5 4 -4 -1
right_child=-2 -3 3 -5 -6 -7
leaf_value=0.026639488339424134 -0.053544980969029266 -0.009818441637189073 -0.0017062856576797601 -0.0048296647326600169 0.032084038819186388 0.014816921490377614
leaf_weight=22 26 34 38 31 25 21
leaf_count=22 26 34 38 31 25 21
internal_value=-0.00122452 0.00673064 0.0108377 0.00625045 0.0117026 0.0208657
internal_weight=197 171 137 94 63 43
internal_count=197 171 137 94 63 43
is_linear=0
shrinkage=0.05


Tree=4
num_leaves=8
num_cat=0
split_feature=18 2 2 15 0 2 0
split_gain=30.4258 3.40801 2.37598 1.93991 2.18347 0.586651 2.35777
threshold=0.92068466730954679 0.52249989789489193 -0.41483424384167061 -0.3374068035804707 1.8450000000000002 0.17457100242187967 1.1650000000000003
decision_type=2 2 2 2 2 2 2
left_child=-1 2 -2 4 5 6 -4
right_child=1 -3 3 -5 -6 -7 -8
leaf_value=-0.044187430664896971 0.024252579533136809 -0.010989069987443232 0.0010905263053824787 -0.0058361041274937716 -0.00047287878192340339 0.022724878965389161 0.024513057293370367
leaf_weight=34 26 21 22 22 30 21 21
leaf_count=34 26 21 22 22 30 21 21
internal_value=-0.00116329 0.00781107 0.0105914 0.00752938 0.0106575 0.0158748 0.0125294
internal_weight=197 163 142 116 94 64 43
internal_count=197 163 142 116 94 64 43
is_linear=0
shrinkage=0.05


Tree=5
num_leaves=7
num_cat=0
split_feature=20 8 15 20 11 2
split_gain=29.869 3.53695 4.42062 3.52592 1.45334 1.20614
threshold=-1.9473684210526316 -0.14599999999999999 -0.42605826745288705 -0.25649350649350633 -0.37499999999999994 0.03254737569258246
decision_type=2 2 2 2 2 2
left_child=1 -1 5 -2 -4 -3
right_child=3 2 4 -5 -6 -7
leaf_value=0.023400053534752285 -0.02010271971424421 0.0098579763062298306 -0.008824329161261385 -0.047648745723283641 0.0062740390721176351 0.027014784999967862
leaf_weight=39 21 20 37 26 28 21
leaf_count=39 21 20 37 26 28 21
internal_value=-0.000701977 0.0105258 0.00578908 -0.0353409 -0.00232042 0.0186456
internal_weight=192 145 106 47 65 41
internal_count=192 145 106 47 65 41
is_linear=0
shrinkage=0.05


Tree=6
num_leaves=8
num_cat=0
split_feature=20 8 15 16 18 2 2
split_gain=26.9568 3.1921 3.98961 3.61954 3.18214 2.25884 1.08854
threshold=-1.9473684210526316 -0.14599999999999999 -0.42605826745288705 -0.17791848064472351 0.28940886699507401 0.094418872712643806 0.03254737569258246
decision_type=2 2 2 2 2 2 2
left_child=1 -1 6 -4 -2 -5 -3
right_child=4 2 3 5 -6 -7 -8
leaf_value=0.022230050598199554 -0.045266307675494603 0.0093650775682181126 -0.019283176546118091 0.018356980485841633 -0.019097583519206162 -0.0043949447261790436 0.025664045592947379
leaf_weight=39 26 20 21 20 21 24 21
leaf_count=39 26 20 21 20 21 24 21
internal_value=-0.000666878 0.00999954 0.00549963 -0.0022044 -0.0335739 0.00594684 0.0177133
internal_weight=192 145 106 65 47 44 41
internal_count=192 145 106 65 47 44 41
is_linear=0
shrinkage=0.05


Tree=7
num_leaves=8
num_cat=0
split_feature=20 8 15 16 20 2 2
split_gain=24.3285 2.88087 3.60063 3.26664 2.87189 2.0386 0.98241
threshold=-1.9473684210526316 -0.14599999999999999 -0.42605826745288705 -0.17791848064472351 -0.25649350649350633 0.094418872712643806 0.03254737569258246
decision_type=2 2 2 2 2 2 2
left_child=1 -1 6 -4 -2 -5 -3
right_child=4 2 3 5 -6 -7 -8
leaf_value=0.021118548116049705 -0.018142704692270077 0.0088968238234519974 -0.018319017416658989 0.017439132286235691 -0.043002992954391701 -0.0041751972710092865 0.024380843319176213
leaf_weight=39 21 20 21 20 26 24 21
leaf_count=39 21 20 21 20 26 24 21
internal_value=-0.000633534 0.00949956 0.00522465 -0.00209418 -0.0318952 0.0056495 0.0168277
internal_weight=192 145 106 65 47 44 41
internal_count=192 145 106 65 47 44 41
is_linear=0
shrinkage=0.05


Tree=8
num_leaves=7
num_cat=0
split_feature=20 9 18 2 8 11
split_gain=21.9565 2.75162 2.59188 1.86358 3.48654 1.34623
threshold=-1.9473684210526316 1.0000000180025095e-35 0.28940886699507401 0.35357845302651808 -0.14599999999999999 -0.37499999999999994
decision_type=2 2 2 2 2 2
left_child=1 3 -2 4 -1 -6
right_child=2 -3 -4 -5 5 -7
leaf_value=0.024902987577345062 -0.040852842967097576 0.020582522079348565 -0.017235569398672806 -0.0080504015130414205 -0.0043619919648127904 0.010497716227891269
leaf_weight=23 26 38 21 22 35 27
leaf_count=23 26 38 21 22 35 27
internal_value=-0.000601857 0.00902458 -0.0303004 0.00491989 0.00827691 0.00210917
internal_weight=192 145 47 107 85 62
internal_count=192 145 47 107 85 62
is_linear=0
shrinkage=0.05


Tree=9
num_leaves=7
num_cat=0
split_feature=20 9 18 2 8 11
split_gain=19.8157 2.48334 2.33917 1.68188 3.1466 1.21498
threshold=-1.9473684210526316 1.0000000180025095e-35 0.28940886699507401 0.35357845302651808 -0.14599999999999999 -0.37499999999999994
decision_type=2 2 2 2 2 2
left_child=1 3 -2 4 -1 -6
right_child=2 -3 -4 -5 5 -7
leaf_value=0.023657837607290434 -0.038810200759997741 0.019553395615596519 -0.016373790952742898 -0.0076478823850100689 -0.0041438924973564491 0.0099728298959908673
leaf_weight=23 26 38 21 22 35 27
leaf_count=23 26 38 21 22 35 27
internal_value=-0.000571764 0.00857335 -0.0287854 0.0046739 0.00786306 0.00200371
internal_weight=192 145 47 107 85 62
internal_count=192 145 47 107 85 62
is_linear=0
shrinkage=0.05


Tree=10
num_leaves=8
num_cat=0
split_feature=18 15 2 15 0 2 15
split_gain=19.9508 3.00314 1.59907 2.46493 2.85357 1.62219 1.46997
threshold=0.45307017543859635 -0.54136567643159983 0.40787670916605873 -0.3374068035804707 1.8450000000000002 0.046496132833982157 -0.66641244794898435
decision_type=2 2 2 2 2 2 2
left_child=-1 6 3 4 5 -3 -2
right_child=1 2 -4 -5 -6 -7 -8
leaf_value=-0.04080402279893558 0.0076406292393803605 0.00832274644363982 -0.010583613278425259 -0.007789909935766651 -0.0059328181245787582 0.026706310100853444 0.025155634481621825
leaf_weight=27 25 30 23 31 22 20 23
leaf_count=27 25 30 23 31 22 20 23
internal_value=-0.000814612 0.00539064 0.00133632 0.00399805 0.00907342 0.0156762 0.0160332
internal_weight=201 174 126 103 72 50 48
internal_count=201 174 126 103 72 50 48
is_linear=0
shrinkage=0.05


Tree=11
num_leaves=7
num_cat=0
split_feature=18 15 16 16 0 2
split_gain=18.0708 2.45785 2.35704 4.8342 2.52411 1.06631
threshold=0.92068466730954679 -0.3374068035804707 0.25762742146142831 -0.082832513030398541 1.8450000000000002 -0.052308537285028642
decision_type=2 2 2 2 2 2
left_child=-1 2 3 4 5 -2
right_child=1 -3 -4 -5 -6 -7
leaf_value=-0.034600482045701056 0.020759893448557706 -0.0059185780584812171 -0.0013607352864570344 0.029043458864907737 -0.0084889725019985981 0.0044326756708323962
leaf_weight=33 20 35 39 32 22 20
leaf_count=33 20 35 39 32 22 20
internal_value=-0.000773881 0.00587063 0.00897305 0.0132605 0.00511442 0.0125963
internal_weight=201 168 133 94 62 40
internal_count=201 168 133 94 62 40
is_linear=0
shrinkage=0.05


Tree=12
num_leaves=8
num_cat=0
split_feature=18 15 2 8 15 15 2
split_gain=16.4381 2.61896 1.34816 2.33803 1.27445 1.00603 0.213274
threshold=0.45307017543859635 -0.54136567643159983 0.40787670916605873 -0.14599999999999999 -0.66641244794898435 -0.3374068035804707 -0.10141403248879903
decision_type=2 2 2 2 2 2 2
left_child=-1 4 3 -3 -2 6 -5
right_child=1 2 -4 5 -6 -7 -8
leaf_value=-0.037033797083077608 0.0070213829069398345 0.018441095025766463 -0.009833644824507444 -0.0007491781888529659 0.02333000546888165 -0.0086194971203804021 0.0056593794312730841
leaf_weight=27 25 21 23 20 23 25 37
leaf_count=27 25 21 23 20 23 25 37
internal_value=-0.000735187 0.00489736 0.00111123 0.00355523 0.0148359 -0.000256999 0.00341076
internal_weight=201 174 126 103 48 82 57
internal_count=201 174 126 103 48 82 57
is_linear=0
shrinkage=0.05


Tree=13
num_leaves=7
num_cat=0
split_feature=18 15 8 9 21 15
split_gain=14.8359 2.02404 1.57292 1.7209 2.56239 0.100825
threshold=0.92068466730954679 -0.3374068035804707 -0.14599999999999999 -0.024999999999999998 -0.0093749999999999997 -0.42605826745288705
decision_type=2 2 2 2 2 2
left_child=-1 2 -2 -4 5 -5
right_child=1 -3 3 4 -6 -7
leaf_value=-0.031348184563896875 0.017415882690864453 -0.0053762918763927059 0.016934085884333951 0.012544445432722567 -0.0083531583103144333 0.0075238577718846501
leaf_weight=33 34 35 23 20 36 20
leaf_count=33 34 35 23 20 36 20
internal_value=-0.000698428 0.00532206 0.00813742 0.00495087 0.00132437 0.0100342
internal_weight=201 168 133 99 76 40
internal_count=201 168 133 99 76 40
is_linear=0
shrinkage=0.05


Tree=14
num_leaves=8
num_cat=0
split_feature=18 20 2 2 9 2 2
split_gain=13.5461 1.53752 1.16502 1.64729 1.21003 1.10959 0.530999
threshold=0.45307017543859635 -1.9473684210526316 0.23822768302870997 0.098145261931978908 1.0000000180025095e-35 0.41866927988127473 -0.16382607734670937
decision_type=2 2 2 2 2 2 2
left_child=-1 2 3 4 6 -4 -2
right_child=1 -3 5 -5 -6 -7 -8
leaf_value=-0.033614698963032832 -0.00094204256801228784 -0.008592592622153462 0.021791753862053159 -0.0094940867274999619 0.016273150520156262 0.0053359343359867736 0.0077997217156735134
leaf_weight=27 38 20 20 20 23 21 32
leaf_count=27 38 20 20 20 23 21 32
internal_value=-0.000663507 0.00444961 0.0061434 0.00352384 0.0063234 0.0133632 0.00305419
internal_weight=201 174 154 113 93 41 70
internal_count=201 174 154 113 93 41 70
is_linear=0
shrinkage=0.05


Tree=15
num_leaves=8
num_cat=0
split_feature=20 20 2 2 15 2 2
split_gain=9.91456 1.83379 2.65279 3.60916 1.47259 1.63652 1.25549
threshold=-0.25649350649350633 -1.9473684210526316 0.35357845302651808 0.19406103195814914 -0.3374068035804707 -0.013511211359829398 -0.33474973987520162
decision_type=2 2 2 2 2 2 2
left_child=1 2 3 4 5 6 -1
right_child=-2 -3 -4 -5 -6 -7 -8
leaf_value=0.0079112626039064861 -0.030254434292083202 -0.0083488761892785198 -0.0072719311134682761 0.029454948855564003 -0.0043273175954818728 -0.00057797775417566303 0.024348528131044336
leaf_weight=26 23 23 27 20 25 25 21
leaf_count=26 23 23 27 20 25 25 21
internal_value=0.000522422 0.00476115 0.00685511 0.0101152 0.00612762 0.00975781 0.0152556
internal_weight=190 167 144 117 97 72 47
internal_count=190 167 144 117 97 72 47
is_linear=0
shrinkage=0.05


Tree=16
num_leaves=8
num_cat=0
split_feature=20 20 2 2 9 9 2
split_gain=8.94789 1.65499 2.39414 3.25726 2.16955 1.60284 0.493795
threshold=-0.25649350649350633 -1.9473684210526316 0.35357845302651808 0.19406103195814914 1.0000000180025095e-35 -0.024999999999999998 -0.073289888094541442
decision_type=2 2 2 2 2 2 2
left_child=1 2 3 4 5 -1 -7
right_child=-2 -3 -4 -5 -6 6 -8
leaf_value=0.01183494692263396 -0.028741712155549423 -0.0079314325652692624 -0.0069083346122944802 0.027982201781123879 0.017559801198409074 0.0010799466208978132 -0.0092906867910642187
leaf_weight=23 23 23 27 20 28 22 24
leaf_count=23 23 23 27 20 28 22 24
internal_value=0.000496301 0.00452309 0.00651236 0.00960944 0.00582124 0.00105777 -0.00433082
internal_weight=190 167 144 117 97 69 46
internal_count=190 167 144 117 97 69 46
is_linear=0
shrinkage=0.05


Tree=17
num_leaves=8
num_cat=0
split_feature=18 2 2 9 2 2 2
split_gain=7.20552 1.89957 3.69811 1.55983 1.41525 1.22488 2.46302
threshold=0.45307017543859635 0.49434256888230865 0.2816775310448697 1.0000000180025095e-35 0.08709169633986541 -0.10141403248879903 -0.39605669265756988
decision_type=2 2 2 2 2 2 2
left_child=-1 2 3 4 5 6 -2
right_child=1 -3 -4 -5 -6 -7 -8
leaf_value=-0.023452732629246183 0.0098401577465913517 -0.00999860178679228 0.024357403349131349 0.012083208589165499 -0.012355867898731958 0.012459826113825496 -0.013819440284913238
leaf_weight=27 22 20 24 33 20 22 22
leaf_count=27 22 20 24 33 20 22 22
internal_value=0.000471486 0.00443439 0.00645299 0.00284202 -0.000704016 0.00282685 -0.00198964
internal_weight=190 163 143 119 86 66 44
internal_count=190 163 143 119 86 66 44
is_linear=0
shrinkage=0.05


Tree=18
num_leaves=7
num_cat=0
split_feature=18 2 2 9 2 9
split_gain=6.50298 1.75514 4.00748 1.7168 1.28305 1.34092
threshold=0.45307017543859635 0.35357845302651808 0.19406103195814914 1.0000000180025095e-35 -0.39605669265756988 -0.024999999999999998
decision_type=2 2 2 2 2 2
left_child=-1 2 3 4 -2 -6
right_child=1 -3 -4 -5 5 -7
leaf_value=-0.022280095241687919 0.0093481493436477405 -0.0064935944974422455 0.026756549270690551 0.012926890110717185 0.0052583419496104837 -0.010560495750758344
leaf_weight=27 22 31 21 31 21 37
leaf_count=27 22 31 21 31 21 37
internal_value=0.000447912 0.00421267 0.00672702 0.00293766 -0.000933173 -0.00483299
internal_weight=190 163 132 111 80 58
internal_count=190 163 132 111 80 58
is_linear=0
shrinkage=0.05


Tree=19
num_leaves=8
num_cat=0
split_feature=20 20 2 8 9 0 16
split_gain=6.77608 1.34597 1.94555 2.99165 3.84418 0.871865 0.648857
threshold=-0.25649350649350633 -1.9473684210526316 0.35357845302651808 -0.14599999999999999 -0.024999999999999998 1.8450000000000002 -0.060719825218017942
decision_type=2 2 2 2 2 2 2
left_child=1 2 3 -1 -5 6 -6
right_child=-2 -3 -4 4 5 -7 -8
leaf_value=0.023853115942329167 -0.025017986418274435 -0.0073020204010864967 -0.0063745306459841904 0.023740042448043827 0.0086448451220665287 -0.0099108684342354546 -0.0026007683594422098
leaf_weight=25 23 23 27 20 23 20 29
leaf_count=25 23 23 27 20 23 20 29
internal_value=0.000425516 0.00392971 0.00572367 0.00851556 0.00434775 -0.001039 0.00237325
internal_weight=190 167 144 117 92 72 52
internal_count=190 167 144 117 92 72 52
is_linear=0
shrinkage=0.05


Tree=20
num_leaves=8
num_cat=0
split_feature=20 15 2 0 16 16 16
split_gain=6.58691 1.30857 1.7336 2.1339 4.7267 0.942421 0.292942
threshold=-1.9473684210526316 -0.42605826745288705 -0.28154378368989524 1.8450000000000002 0.14717172625176436 0.022671928047067955 0.13822602782456783
decision_type=2 2 2 2 2 2 2
left_child=1 5 -3 4 -4 -1 -2
right_child=6 2 3 -5 -6 -7 -8
leaf_value=0.0066882749909863764 -0.012110244069734346 0.01472285861770312 0.016482250446513778 -0.014620779137211768 -0.013821372559124773 0.020366661171428862 -0.020090403098552284
leaf_weight=34 23 21 31 22 22 20 23
leaf_count=34 23 21 31 22 22 20 23
internal_value=0.000451644 0.00552758 0.00202503 -0.00153037 0.00390339 0.0117543 -0.0161003
internal_weight=196 150 96 75 53 54 46
internal_count=196 150 96 75 53 54 46
is_linear=0
shrinkage=0.05


Tree=21
num_leaves=8
num_cat=0
split_feature=20 2 0 16 2 11 2
split_gain=5.94469 1.19116 1.21401 2.37916 1.58836 0.334364 0.146394
threshold=-1.9473684210526316 0.38585694920575386 1.8450000000000002 -0.24110551651634995 -0.16382607734670937 -0.37499999999999994 0.098145261931978908
decision_type=2 2 2 2 2 2 2
left_child=1 2 3 -1 -5 -2 -6
right_child=5 -3 -4 4 6 -7 -8
leaf_value=0.025417987878123924 -0.020155711583793163 -0.0036600481470425925 9.1371905842893997e-05 0.017457436686381698 0.0031860333290838062 -0.011556534952698993 -0.0027911848714575176
leaf_weight=21 20 30 38 20 21 26 20
leaf_count=21 20 30 38 20 21 26 20
internal_value=0.000429061 0.0052512 0.00747901 0.0109026 0.00590544 -0.0152953 0.000270317
internal_weight=196 150 120 82 61 46 41
internal_count=196 150 120 82 61 46 41
is_linear=0
shrinkage=0.05


Tree=22
num_leaves=7
num_cat=0
split_feature=20 15 0 16 16 11
split_gain=5.36508 1.15933 1.32189 3.92047 0.867244 0.301763
threshold=-1.9473684210526316 -0.42605826745288705 1.8450000000000002 0.14717172625176436 0.022671928047067955 -0.37499999999999994
decision_type=2 2 2 2 2 2
left_child=1 4 3 -3 -1 -2
right_child=5 2 -4 -5 -6 -7
leaf_value=0.0059897727826062376 -0.019147926438599826 0.015787035341446216 -0.0070106129503498468 -0.0089984197204035742 0.019111261490616017 -0.010978708213839967
leaf_weight=34 20 39 30 27 20 26
leaf_count=34 20 39 30 27 20 26
internal_value=0.000407608 0.00498864 0.00169186 0.00564753 0.0108496 -0.0145305
internal_weight=196 150 96 66 54 46
internal_count=196 150 96 66 54 46
is_linear=0
shrinkage=0.05


Tree=23
num_leaves=7
num_cat=0
split_feature=20 9 11 9 9 11
split_gain=4.84199 1.15642 1.86766 4.14106 1.40975 0.272341
threshold=-1.9473684210526316 1.0000000180025095e-35 -0.37499999999999994 -1.0000000180025095e-35 -1.0000000180025095e-35 -0.37499999999999994
decision_type=2 2 2 2 2 2
left_child=1 2 3 -1 -4 -2
right_child=5 -3 4 -5 -6 -7
leaf_value=-0.02258304823189974 -0.018190530436113479 0.012276213846512531 0.017314911320805548 0.0062500607596258778 0.0016741579836782291 -0.010429773055231916
leaf_weight=20 20 38 25 33 34 26
leaf_count=20 20 38 25 33 34 26
internal_value=0.000387228 0.00473921 0.00218201 -0.00463036 0.0083016 -0.013804
internal_weight=196 150 112 53 59 46
internal_count=196 150 112 53 59 46
is_linear=0
shrinkage=0.05


Tree=24
num_leaves=7
num_cat=0
split_feature=20 2 16 2 2 16
split_gain=4.36989 1.02436 1.0847 2.60612 0.696701 0.256994
threshold=-1.9473684210526316 0.38585694920575386 -0.32134267476784922 -0.17395177304106538 0.14550347483303683 0.13822602782456783
decision_type=2 2 2 2 2 2
left_child=1 2 -1 -4 -5 -2
right_child=5 -3 3 4 -6 -7
leaf_value=0.014801878146827221 -0.0093765629941354629 -0.0037615558815499149 0.016820373731078926 -0.0058711243470987448 0.0049563081081335746 -0.016851065777566121
leaf_weight=30 23 30 27 39 24 23
leaf_count=30 23 30 27 39 24 23
internal_value=0.000367867 0.00450225 0.0065682 0.00382364 -0.00174639 -0.0131138
internal_weight=196 150 120 90 63 46
internal_count=196 150 120 90 63 46
is_linear=0
shrinkage=0.05


Tree=25
num_leaves=8
num_cat=0
split_feature=20 15 16 16 15 11 16
split_gain=5.00397 3.36589 4.15149 3.25163 1.12256 0.378684 0.282233
threshold=-1.9473684210526316 -0.54136567643159983 -0.17112525235350098 0.10511202838213907 -0.42605826745288705 -0.37499999999999994 -0.35539413633326039
decision_type=2 2 2 2 2 2 2
left_child=1 -1 6 -4 -2 -5 -3
right_child=4 2 3 5 -6 -7 -8
leaf_value=0.016950434505155213 -0.0055758598349278888 -0.017318796571344136 0.021514379203319552 0.0032658655196428302 -0.020868540013075941 -0.0062403308413922793 -0.0089188938902225352
leaf_weight=38 21 20 25 22 28 20 20
leaf_count=38 21 20 25 22 28 20 20
internal_value=-0.000500761 0.00416734 -0.000372448 0.00723734 -0.0143145 -0.00126089 -0.0131188
internal_weight=194 145 107 67 49 42 40
internal_count=194 145 107 67 49 42 40
is_linear=0
shrinkage=0.05


Tree=26
num_leaves=9
num_cat=0
split_feature=18 15 16 16 16 11 16 16
split_gain=3.72237 2.26451 3.74672 2.9346 0.562727 0.341762 0.254716 0.053354
threshold=1.8609307359307365 -0.54136567643159983 -0.17112525235350098 0.10511202838213907 0.10511202838213907 -0.37499999999999994 -0.35539413633326039 -0.099252971633490533
decision_type=2 2 2 2 2 2 2 2
left_child=4 7 6 -4 -1 -5 -3 -2
right_child=1 2 3 5 -6 -7 -8 -9
leaf_value=-0.01743309705828627 0.015416465159505606 -0.016452855449169874 0.020438660681247712 0.0031025720082900744 -0.0063676035078242422 -0.0059283140115439894 -0.0084729493415215996 0.011764274258166552
leaf_weight=27 20 20 25 22 20 20 20 20
leaf_count=27 20 20 25 22 20 20 20 20
internal_value=-0.000475723 0.00344051 -0.000353825 0.00687547 -0.0127244 -0.00119785 -0.0124629 0.0135904
internal_weight=194 147 107 67 47 42 40 40
internal_count=194 147 107 67 47 42 40 40
is_linear=0
shrinkage=0.05


Tree=27
num_leaves=8
num_cat=0
split_feature=20 15 16 2 16 15 16
split_gain=4.13726 2.78407 3.38141 2.74659 2.62407 0.997452 0.229881
threshold=-1.9473684210526316 -0.54136567643159983 -0.17112525235350098 -0.18439636382402572 0.14717172625176436 -0.42605826745288705 -0.35539413633326039
decision_type=2 2 2 2 2 2 2
left_child=1 -1 6 -4 -5 -2 -3
right_child=5 2 3 4 -6 -7 -8
leaf_value=0.015418588370084764 -0.0047752183141364229 -0.015630213525146246 0.021010218645361338 0.012952460236847402 -0.011346002164296806 -0.019190575874277527 -0.0080493019521236421
leaf_weight=38 21 20 22 20 25 28 20
leaf_count=38 21 20 22 20 25 28 20
internal_value=-0.000451937 0.00379269 -0.000336134 0.0065317 -0.000546686 -0.0130126 -0.0118398
internal_weight=194 145 107 67 45 49 40
internal_count=194 145 107 67 45 49 40
is_linear=0
shrinkage=0.05


Tree=28
num_leaves=8
num_cat=0
split_feature=20 15 16 2 16 15 16
split_gain=3.73388 2.51263 3.05173 2.47879 2.36822 0.900201 0.207468
threshold=-1.9473684210526316 -0.54136567643159983 -0.17112525235350098 -0.18439636382402572 0.14717172625176436 -0.42605826745288705 -0.35539413633326039
decision_type=2 2 2 2 2 2 2
left_child=1 -1 6 -4 -5 -2 -3
right_child=5 2 3 4 -6 -7 -8
leaf_value=0.014647659468219469 -0.0045364573991502682 -0.014848702773451806 0.019959707998416641 0.012304837927222253 -0.010778702147305013 -0.018231047250862633 -0.0076468364149332047
leaf_weight=38 21 20 22 20 25 28 20
leaf_count=38 21 20 22 20 25 28 20
internal_value=-0.00042934 0.00360306 -0.000319327 0.00620512 -0.000519351 -0.0123619 -0.0112478
internal_weight=194 145 107 67 45 49 40
internal_count=194 145 107 67 45 49 40
is_linear=0
shrinkage=0.05


Tree=29
num_leaves=8
num_cat=0
split_feature=20 15 16 16 15 11 16
split_gain=3.36982 2.26765 2.75418 2.28803 0.812431 0.289892 0.187239
threshold=-1.9473684210526316 -0.54136567643159983 -0.17112525235350098 0.10511202838213907 -0.42605826745288705 -0.37499999999999994 -0.35539413633326039
decision_type=2 2 2 2 2 2 2
left_child=1 -1 6 -4 -2 -5 -3
right_child=4 2 3 5 -6 -7 -8
leaf_value=0.013915276188574927 -0.0043096345134212505 -0.014106267392635347 0.017871035873889923 0.0027268414470282467 -0.017319495011387128 -0.0055905378935858611 -0.0072644949704408646
leaf_weight=38 21 20 25 22 28 20 20
leaf_count=38 21 20 25 22 28 20 20
internal_value=-0.000407873 0.0034229 -0.000303361 0.00589486 -0.0117438 -0.00123382 -0.0106854
internal_weight=194 145 107 67 49 42 40
internal_count=194 145 107 67 49 42 40
is_linear=0
shrinkage=0.05


Tree=30
num_leaves=8
num_cat=0
split_feature=18 16 2 16 16 16 16
split_gain=4.14422 3.61628 0.662674 2.10386 1.13599 1.08094 0.218266
threshold=0.92068466730954679 -0.52077468704603425 -0.10141403248879903 0.04732867776576246 0.36104366896459189 -0.027415914052787645 -0.20863576702677025
decision_type=2 2 2 2 2 2 2
left_child=-1 -2 5 6 -5 -3 -4
right_child=1 2 3 4 -6 -7 -8
leaf_value=-0.017381811433782181 0.021215075624944724 -0.012440087491025528 0.0068688942740360902 -0.013210813227024946 0.002095207475401737 0.0029036985032937744 0.014077784174254962
leaf_weight=30 23 24 21 22 27 22 21
leaf_count=30 23 24 21 22 27 22 21
internal_value=-0.000328291 0.00286924 -0.000210714 0.00226168 -0.00477688 -0.00510176 0.0104733
internal_weight=190 160 137 91 49 46 42
internal_count=190 160 137 91 49 46 42
is_linear=0
shrinkage=0.05


Tree=31
num_leaves=8
num_cat=0
split_feature=18 16 15 2 2 2 16
split_gain=3.74016 3.26369 0.911508 1.35424 0.950288 0.844004 0.598123
threshold=0.92068466730954679 -0.52077468704603425 -0.42605826745288705 -0.23906259200376831 0.32430720728211682 0.03254737569258246 1.0000000180025095e-35
decision_type=2 2 2 2 2 2 2
left_child=-1 -2 5 -4 6 -3 -5
right_child=1 2 3 4 -6 -7 -8
leaf_value=-0.016512720893758041 0.020154321454870311 -0.0018567436002194884 0.0072250167373567823 -0.017372882575727999 0.0012206061726847111 0.012050719093531372 -0.0056651940258840719
leaf_weight=30 23 20 24 20 25 24 24
leaf_count=30 23 20 24 20 25 24 24
internal_value=-0.000311877 0.00272578 -0.000200178 -0.00300545 -0.00656387 0.00572915 -0.0109869
internal_weight=190 160 137 93 69 44 44
internal_count=190 160 137 93 69 44 44
is_linear=0
shrinkage=0.05


Tree=32
num_leaves=8
num_cat=0
split_feature=18 16 15 2 2 2 16
split_gain=3.37549 2.94548 0.822636 1.22672 0.775735 0.761713 0.739719
threshold=0.92068466730954679 -0.52077468704603425 -0.42605826745288705 -0.28154378368989524 0.32430720728211682 0.03254737569258246 1.0000000180025095e-35
decision_type=2 2 2 2 2 2 2
left_child=-1 -2 5 -4 6 -3 -5
right_child=1 2 3 4 -6 -7 -8
leaf_value=-0.015687084657450518 0.019146606066952582 -0.0017639066837728025 0.0077778608316466926 -0.016721229689816635 0.0011595758297480642 0.011448183345297973 -0.0041042336692603742
leaf_weight=30 23 20 21 21 25 24 26
leaf_count=30 23 20 21 21 25 24 26
internal_value=-0.000296283 0.00258949 -0.000190169 -0.00285518 -0.00595648 0.00544269 -0.00974161
internal_weight=190 160 137 93 72 44 47
internal_count=190 160 137 93 72 44 47
is_linear=0
shrinkage=0.05


Tree=33
num_leaves=7
num_cat=0
split_feature=18 16 9 16 8 2
split_gain=3.04638 2.6583 0.704649 1.21203 1.10064 0.669098
threshold=0.92068466730954679 -0.52077468704603425 1.0000000180025095e-35 0.04732867776576246 0.22424999999999992 0.03254737569258246
decision_type=2 2 2 2 2 2
left_child=-1 -2 4 -4 -3 -6
right_child=1 2 3 -5 5 -7
leaf_value=-0.014902730571726959 0.018189275313330734 -0.010464950725436212 0.014115473665297033 -0.0030831931158900264 -0.0039489550233790371 0.0061197310576751604
leaf_weight=30 23 30 20 21 33 33
leaf_count=30 23 30 20 21 33 33
internal_value=-0.000281469 0.00246002 -0.000180661 0.0053064 -0.00252409 0.00108539
internal_weight=190 160 137 41 96 66
internal_count=190 160 137 41 96 66
is_linear=0
shrinkage=0.05


Tree=34
num_leaves=8
num_cat=0
split_feature=18 16 15 2 2 2 16
split_gain=2.74936 2.39911 0.749491 1.13167 0.773991 0.662048 0.500628
threshold=0.92068466730954679 -0.52077468704603425 -0.42605826745288705 -0.23906259200376831 0.32430720728211682 0.03254737569258246 1.0000000180025095e-35
decision_type=2 2 2 2 2 2 2
left_child=-1 -2 5 -4 6 -3 -5
right_child=1 2 3 4 -6 -7 -8
leaf_value=-0.014157593759397666 0.017279812272476113 -0.0015136278606951237 0.0066366779307524375 -0.015802394468337297 0.0010570872817188502 0.010803813642511767 -0.0050913127216820923
leaf_weight=30 23 20 24 20 25 24 24
leaf_count=30 23 20 24 20 25 24 24
internal_value=-0.000267395 0.00233702 -0.000171628 -0.0027154 -0.00596829 0.00520498 -0.00995999
internal_weight=190 160 137 93 69 44 44
internal_count=190 160 137 93 69 44 44
is_linear=0
shrinkage=0.05


Tree=35
num_leaves=8
num_cat=0
split_feature=18 15 9 16 16 16 16
split_gain=2.24524 2.81283 2.53044 1.29937 0.708498 0.53621 0.908645
threshold=-0.17872265349329547 -0.3374068035804707 1.0000000180025095e-35 -0.26496592023309984 -0.0096430352672326972 1.0000000180025095e-35 0.33523079175253107
decision_type=2 2 2 2 2 2 2
left_child=-1 2 3 -2 -3 -5 -7
right_child=1 4 -4 5 -6 6 -8
leaf_value=-0.016962373887654394 0.0082071606123021671 -0.017651182524859903 0.016141822640642976 -0.0096393529170503214 -0.0043423662940040228 0.0061123716086149216 -0.0076582562289727128
leaf_weight=20 35 20 33 24 20 25 23
leaf_count=20 35 20 33 24 20 25 23
internal_value=-0.00106931 0.000696582 0.00403754 0.000304444 -0.0109968 -0.00353715 -0.000486054
internal_weight=200 180 140 107 40 72 48
internal_count=200 180 140 107 40 72 48
is_linear=0
shrinkage=0.05


Tree=36
num_leaves=8
num_cat=0
split_feature=18 15 9 16 16 16 16
split_gain=2.02633 2.53858 2.28372 1.17268 0.63942 0.48393 0.820052
threshold=-0.17872265349329547 -0.3374068035804707 1.0000000180025095e-35 -0.26496592023309984 -0.0096430352672326972 1.0000000180025095e-35 0.33523079175253107
decision_type=2 2 2 2 2 2 2
left_child=-1 2 3 -2 -3 -5 -7
right_child=1 4 -4 5 -6 6 -8
leaf_value=-0.016114255720749499 0.0077968028719936095 -0.016768623478710651 0.015334731165432569 -0.0091573852424820263 -0.0041252478898968553 0.0058067526444792747 -0.0072753434428823706
leaf_weight=20 35 20 33 24 20 25 23
leaf_count=20 35 20 33 24 20 25 23
internal_value=-0.00101585 0.000661753 0.00383566 0.000289222 -0.0104469 -0.0033603 -0.000461752
internal_weight=200 180 140 107 40 72 48
internal_count=200 180 140 107 40 72 48
is_linear=0
shrinkage=0.05


Tree=37
num_leaves=8
num_cat=0
split_feature=18 15 9 16 16 16 16
split_gain=1.82876 2.29106 2.06106 1.05834 0.577076 0.436747 0.740097
threshold=-0.17872265349329547 -0.3374068035804707 1.0000000180025095e-35 -0.26496592023309984 -0.0096430352672326972 1.0000000180025095e-35 0.33523079175253107
decision_type=2 2 2 2 2 2 2
left_child=-1 2 3 -2 -3 -5 -7
right_child=1 4 -4 5 -6 6 -8
leaf_value=-0.015308542363345624 0.0074069625352110192 -0.01593019226565957 0.014567994851280342 -0.0086995157413184646 -0.0039189854505821131 0.0055164151974022389 -0.0069115762457089593
leaf_weight=20 35 20 33 24 20 25 23
leaf_count=20 35 20 33 24 20 25 23
internal_value=-0.000965056 0.000628665 0.00364388 0.000274761 -0.00992459 -0.00319228 -0.000438664
internal_weight=200 180 140 107 40 72 48
internal_count=200 180 140 107 40 72 48
is_linear=0
shrinkage=0.05


Tree=38
num_leaves=9
num_cat=0
split_feature=18 9 2 2 16 16 16 11
split_gain=1.65046 1.80925 0.994817 1.91105 1.83038 0.876246 0.68842 0.192366
threshold=-0.17872265349329547 1.0000000180025095e-35 -0.41483424384167061 -0.23906259200376831 -0.28446265005404781 0.022671928047067955 0.087750382846179906 -0.37499999999999994
decision_type=2 2 2 2 2 2 2 2
left_child=-1 2 -2 -4 -5 -6 -3 -7
right_child=1 6 3 4 5 7 -8 -9
leaf_value=-0.014543115347623826 0.0064912997508564819 0.014811110053211451 -0.017945868442101137 0.011330892044034872 -0.013755850547126362 0.002268240097910166 0.0023654514597728849 -0.0043106879736296835
leaf_weight=20 26 25 21 22 21 20 20 25
leaf_count=20 26 25 21 22 21 20 20 25
internal_value=-0.000916803 0.000597232 -0.00229693 -0.0043932 -0.00115904 -0.00532235 0.00927971 -0.00138672
internal_weight=200 180 135 109 88 66 45 45
internal_count=200 180 135 109 88 66 45 45
is_linear=0
shrinkage=0.05


Tree=39
num_leaves=8
num_cat=0
split_feature=15 18 9 11 2 2 2
split_gain=1.51115 1.8102 1.52154 0.640737 0.80166 0.447384 0.0731659
threshold=-0.3374068035804707 0.92068466730954679 1.0000000180025095e-35 -0.37499999999999994 1.0000000180025095e-35 -0.013511211359829398 0.018675579874247103
decision_type=2 2 2 2 2 2 2
left_child=1 -1 3 5 -5 -3 -2
right_child=6 2 -4 4 -6 -7 -8
leaf_value=-0.010078637168875762 -0.010915834751601022 -0.0084789348596876323 0.013599328830417607 0.011423862448039775 -0.0013695846349000931 0.0012090318406430575 -0.0068210596265271305
leaf_weight=28 24 22 31 24 25 26 20
leaf_count=28 24 22 31 24 25 26 20
internal_value=-0.000870963 0.00143724 0.00395633 0.00087455 0.00489659 -0.00323129 -0.00905457
internal_weight=200 156 128 97 49 48 44
internal_count=200 156 128 97 49 48 44
is_linear=0
shrinkage=0.05


Tree=40
num_leaves=9
num_cat=0
split_feature=2 2 19 20 2 11 16 16
split_gain=2.89554 2.77193 1.75394 1.83637 1.24905 0.774354 1.02482 0.368529
threshold=0.2816775310448697 0.42701680419442328 -0.0014437499999999999 -1.9473684210526316 -0.10141403248879903 -0.37499999999999994 -0.082832513030398541 -0.060719825218017942
decision_type=2 2 2 2 2 2 2 2
left_child=2 -2 4 5 -1 6 -4 -3
right_child=1 7 3 -5 -6 -7 -8 -9
leaf_value=0.011677565417535929 0.02308845228870355 -0.0041437677666544921 -0.016298857278359887 -0.020398980883571009 -0.0054074449650943282 0.0017092620693923287 -0.00085672755681333096 0.0054547815769910822
leaf_weight=23 21 20 22 24 20 30 21 20
leaf_count=23 21 20 22 24 20 30 21 20
internal_value=-0.000713189 0.00837832 -0.00467449 -0.00840066 0.00373105 -0.004456 -0.00875735 0.000655507
internal_weight=201 61 140 97 43 73 43 40
internal_count=201 61 140 97 43 73 43 40
is_linear=0
shrinkage=0.05


Tree=41
num_leaves=8
num_cat=0
split_feature=2 0 8 18 2 2 16
split_gain=2.61323 2.72046 1.58294 1.22676 1.12727 0.71179 0.750443
threshold=0.2816775310448697 1.1650000000000003 -0.057749999999999996 1.7064485778388943 -0.10141403248879903 0.08709169633986541 0.04732867776576246
decision_type=2 2 2 2 2 2 2
left_child=2 -2 4 -4 -1 6 -5
right_child=1 -3 3 5 -6 -7 -8
leaf_value=0.011093687480720489 0.022532318745340622 0.00030862961662933233 -0.019013654799200596 -0.00664907921390194 -0.0051370725035667425 -0.013230548202991486 0.0052443004529257979
leaf_weight=23 21 40 20 36 20 20 21
leaf_count=23 21 40 20 36 20 20 21
internal_value=-0.000677529 0.00795941 -0.00444077 -0.00798062 0.0035445 -0.0051149 -0.00226731
internal_weight=201 61 140 97 43 77 57
internal_count=201 61 140 97 43 77 57
is_linear=0
shrinkage=0.05


Tree=42
num_leaves=9
num_cat=0
split_feature=2 16 16 19 20 2 11 16
split_gain=2.35844 2.52021 1.8717 1.4286 1.52487 1.01736 0.690491 0.893771
threshold=0.2816775310448697 -0.24110551651634995 0.22530622017270668 -0.0014437499999999999 -1.9473684210526316 -0.10141403248879903 -0.37499999999999994 -0.082832513030398541
decision_type=2 2 2 2 2 2 2 2
left_child=3 -2 -3 5 6 -1 7 -5
right_child=1 2 -4 4 -6 -7 -8 -9
leaf_value=0.010539003010110362 -0.0069898027181625371 0.025606486550532284 0.0042340002776611414 -0.015091628649018028 -0.018515031004790218 -0.004880218990147114 0.0018348143063485626 -0.00067059172406083072
leaf_weight=23 20 20 21 22 24 20 30 21
leaf_count=23 20 20 21 22 24 20 30 21
internal_value=-0.000643653 0.00756144 0.0146596 -0.00421873 -0.00758159 0.00336727 -0.00398704 -0.0080488
internal_weight=201 61 41 140 97 43 73 43
internal_count=201 61 41 140 97 43 73 43
is_linear=0
shrinkage=0.05


Tree=43
num_leaves=9
num_cat=0
split_feature=2 2 2 16 16 16 16 16
split_gain=2.12849 2.46797 1.32234 2.11714 0.806564 0.519733 0.314436 0.294666
threshold=0.2816775310448697 0.42701680419442328 -1.0000000180025095e-35 -0.41163331873797715 0.13822602782456783 0.24404634712816745 -0.099252971633490533 -0.060719825218017942
decision_type=2 2 2 2 2 2 2 2
left_child=2 -2 3 -1 -4 6 -5 -3
right_child=1 7 4 5 -6 -7 -8 -9
leaf_value=-0.012047563446685672 0.021063557737285184 -0.0043951927125453951 -0.0052059475263511699 0.0054157361299509094 -0.018453676111530513 0.010439850639997294 -0.0032367593120960964 0.0041877218522131448
leaf_weight=28 21 20 27 21 20 23 21 20
leaf_count=28 21 20 27 21 20 23 21 20
internal_value=-0.00061147 0.00718337 -0.00400779 -0.000553298 -0.0108433 0.00439808 0.00108949 -0.000103735
internal_weight=201 61 140 93 47 65 42 40
internal_count=201 61 140 93 47 65 42 40
is_linear=0
shrinkage=0.05


Tree=44
num_leaves=8
num_cat=0
split_feature=20 2 2 8 2 2 11
split_gain=1.94122 2.01067 2.28837 1.22589 1.21216 1.11825 0.415913
threshold=-0.25649350649350633 0.2816775310448697 0.42701680419442328 -0.14599999999999999 0.098145261931978908 -0.10141403248879903 -0.37499999999999994
decision_type=2 2 2 2 2 2 2
left_child=1 3 -3 -1 5 6 -5
right_child=-2 2 -4 4 -6 -7 -8
leaf_value=0.0070735136845282145 -0.013618438705801964 0.022823744369670749 0.0011306241935779972 -0.010459338814985973 -0.015123004500161519 0.0063647499307990076 -0.0010772323856751123
leaf_weight=28 25 20 31 27 22 27 21
leaf_count=28 25 20 31 27 22 27 21
internal_value=-0.000580897 0.00127103 0.00963773 -0.00214259 -0.00480291 -0.00177568 -0.00635467
internal_weight=201 176 51 125 97 75 48
internal_count=201 176 51 125 97 75 48
is_linear=0
shrinkage=0.05


Tree=45
num_leaves=8
num_cat=0
split_feature=15 11 16 15 16 16 16
split_gain=1.26328 2.30537 2.67028 0.800694 0.676462 0.670322 0.826122
threshold=-0.60776861255551107 -0.37499999999999994 -0.24926369759002401 -0.66641244794898435 0.14192236713445633 -0.26496592023309984 0.25762742146142831
decision_type=2 2 2 2 2 2 2
left_child=3 2 -2 -1 -4 -3 -7
right_child=1 5 4 -5 -6 6 -8
leaf_value=0.0017192543780159516 -0.020481023198442052 0.010857430999525465 0.0053767847302167316 0.015088109033448356 -0.0066229310662796097 -0.0043111107717718816 0.0079050667956471459
leaf_weight=24 27 26 23 21 24 31 25
leaf_count=24 27 26 23 21 24 31 25
internal_value=0.000577691 -0.00155126 -0.00794962 0.00795805 -0.00075073 0.00422287 0.00114254
internal_weight=201 156 74 45 47 82 56
internal_count=201 156 74 45 47 82 56
is_linear=0
shrinkage=0.05


Tree=46
num_leaves=8
num_cat=0
split_feature=20 11 16 16 2 16 16
split_gain=0.83059 0.843374 1.79652 1.27565 0.822665 0.940915 0.450734
threshold=-0.25649350649350633 -0.37499999999999994 -0.26496592023309984 -0.24926369759002401 -0.17395177304106538 0.24404634712816745 0.14192236713445633
decision_type=2 2 2 2 2 2 2
left_child=1 3 -3 -1 -4 -6 -5
right_child=-2 2 4 6 5 -7 -8
leaf_value=-0.010048745086908943 -0.0077898824265083448 0.01597708005078689 0.008499811540934302 0.0066190763143822553 -0.011389778817538172 0.0039473938290029769 -0.0023412218093872071
leaf_weight=30 26 27 21 32 20 20 25
leaf_count=30 26 27 21 32 20 20 25
internal_value=0.000548806 0.0017877 0.00523897 -0.00170325 0.000486038 -0.00372119 0.00268912
internal_weight=201 175 88 87 61 40 57
internal_count=201 175 88 87 61 40 57
is_linear=0
shrinkage=0.05


Tree=47
num_leaves=8
num_cat=0
split_feature=15 11 9 15 9 0 8
split_gain=1.13712 1.97248 2.01725 0.709762 0.680556 0.66825 0.541045
threshold=-0.60776861255551107 -0.37499999999999994 -1.0000000180025095e-35 -0.66641244794898435 1.0000000180025095e-35 1.8450000000000002 0.20124999999999993
decision_type=2 2 2 2 2 2 2
left_child=3 2 -2 -1 -4 6 -3
right_child=1 5 4 -5 -6 -7 -8
leaf_value=0.00164963344965751 -0.020531697626367015 0.0013885486226242324 -0.006631298848625386 0.014236491080373526 0.0050574507750570782 -0.0031743119936436417 0.011098995178326732
leaf_weight=24 21 26 33 21 20 24 32
leaf_count=24 21 26 33 21 20 24 32
internal_value=0.000521366 -0.00149848 -0.00741689 0.0075235 -0.00222045 0.00384252 0.00674604
internal_weight=201 156 74 45 53 82 58
internal_count=201 156 74 45 53 82 58
is_linear=0
shrinkage=0.05


Tree=48
num_leaves=8
num_cat=0
split_feature=15 11 16 2 0 16 16
split_gain=1.02625 1.78016 2.23336 0.70011 0.603096 0.556369 0.4698
threshold=-0.60776861255551107 -0.37499999999999994 -0.29938956402362693 0.14550347483303683 1.8450000000000002 -0.14472438220672398 0.04732867776576246
decision_type=2 2 2 2 2 2 2
left_child=3 2 -2 -1 5 -3 -4
right_child=1 4 6 -5 -6 -7 -8
leaf_value=0.0015691541926935318 -0.019980695718170509 0.012908965885816588 0.0045230144191355931 0.01412003911100328 -0.0030155964040507873 0.002719413919525372 -0.0052278112185498082
leaf_weight=25 23 21 21 20 24 37 30
leaf_count=25 23 21 21 20 24 37 30
internal_value=0.000495298 -0.00142356 -0.00704604 0.00714733 0.00365039 0.00640873 -0.00121277
internal_weight=201 156 74 45 82 58 51
internal_count=201 156 74 45 82 58 51
is_linear=0
shrinkage=0.05


Tree=49
num_leaves=8
num_cat=0
split_feature=20 9 11 16 16 9 16
split_gain=0.705513 0.798689 1.53945 1.18361 1.02007 0.911091 0.081676
threshold=-0.25649350649350633 1.0000000180025095e-35 -0.37499999999999994 0.22530622017270668 0.022671928047067955 0.085000000000000006 -0.34485323144637287
decision_type=2 2 2 2 2 2 2
left_child=1 2 4 -4 6 -3 -1
right_child=-2 5 3 -5 -6 -7 -8
leaf_value=-0.0086411815439350909 -0.0072146944773311796 0.014252987858312933 0.01030427189782644 -0.0038083456262635687 0.0027079651043528602 0.00082246088422834875 -0.013159919939935209
leaf_weight=20 26 23 39 24 21 28 20
leaf_count=20 26 23 39 24 21 28 20
internal_value=0.000470533 0.00161234 -0.000553939 0.00492804 -0.00621565 0.00687937 -0.0109006
internal_weight=201 175 124 63 61 51 40
internal_count=201 175 124 63 61 51 40
is_linear=0
shrinkage=0.05


Tree=50
num_leaves=7
num_cat=0
split_feature=8 16 16 20 0 16
split_gain=2.71148 2.69567 1.05333 1.11536 0.666895 1.67043
threshold=-0.14599999999999999 -0.0096430352672326972 -0.43096413742244716 -1.9473684210526316 1.1650000000000003 -0.13281960618522379
decision_type=2 2 2 2 2 2
left_child=1 -1 -2 4 -4 -6
right_child=2 -3 3 -5 5 -7
leaf_value=0.025834724050946535 -0.0095841147936880592 0.00047164716419171204 -0.0023894556505339487 -0.0098576556625110771 0.017906149015761912 -0.00040647283930218586
leaf_weight=20 34 22 35 21 20 33
leaf_count=20 34 22 35 21 20 33
internal_value=0.00137988 0.0125493 -0.00190065 0.000496034 0.0029668 0.00650395
internal_weight=185 42 143 109 88 53
internal_count=185 42 143 109 88 53
is_linear=0
shrinkage=0.05


Tree=51
num_leaves=7
num_cat=0
split_feature=8 2 2 2 2 2
split_gain=2.44711 0.767275 0.792165 1.64914 0.83591 0.501852
threshold=-0.14599999999999999 -0.26971990498795057 0.094418872712643806 0.29540369114189341 -0.10141403248879903 -0.0043964527594381993
decision_type=2 2 2 2 2 2
left_child=5 -2 4 -4 -3 -1
right_child=1 2 3 -5 -6 -7
leaf_value=0.0067106464539061902 -0.0082392313943377565 -0.0025898043322376907 -0.01334486841596663 0.0033715364161050984 0.010896777223657679 0.017654147343710066
leaf_weight=22 35 20 25 36 27 20
leaf_count=22 35 20 25 36 27 20
internal_value=0.00131089 -0.00180561 0.000279356 -0.00347945 0.00515781 0.0119218
internal_weight=185 143 108 61 47 42
internal_count=185 143 108 61 47 42
is_linear=0
shrinkage=0.05


Tree=52
num_leaves=7
num_cat=0
split_feature=19 16 16 20 0 16
split_gain=2.20852 2.42783 0.94272 1.00694 0.595933 1.48409
threshold=-0.00365 -0.0096430352672326972 -0.43096413742244716 -1.9473684210526316 1.1650000000000003 -0.13281960618522379
decision_type=2 2 2 2 2 2
left_child=1 -1 -2 4 -4 -6
right_child=2 -3 3 -5 5 -7
leaf_value=0.023933868277817967 -0.0089842071674545027 -0.00013618316998789933 -0.0021636327327827789 -0.0092855987715579208 0.016990714768180624 -0.00027027279703002987
leaf_weight=20 34 22 35 21 20 33
leaf_count=20 34 22 35 21 20 33
internal_value=0.00124535 0.0113257 -0.00171533 0.000552024 0.00289964 0.00624331
internal_weight=185 42 143 109 88 53
internal_count=185 42 143 109 88 53
is_linear=0
shrinkage=0.05


Tree=53
num_leaves=7
num_cat=0
split_feature=8 16 16 20 0 16
split_gain=1.99319 2.19111 0.850805 0.908763 0.537829 1.33939
threshold=-0.14599999999999999 -0.0096430352672326972 -0.43096413742244716 -1.9473684210526316 1.1650000000000003 -0.13281960618522379
decision_type=2 2 2 2 2 2
left_child=1 -1 -2 4 -4 -6
right_child=2 -3 3 -5 5 -7
leaf_value=0.022737174667418005 -0.0085349968196276361 -0.00012937394574030558 -0.0020554513044355972 -0.0088213189638086734 0.016141179227270187 -0.00025675905247529349
leaf_weight=20 34 22 35 21 20 33
leaf_count=20 34 22 35 21 20 33
internal_value=0.00118308 0.0107595 -0.00162957 0.000524422 0.00275466 0.00593114
internal_weight=185 42 143 109 88 53
internal_count=185 42 143 109 88 53
is_linear=0
shrinkage=0.05


Tree=54
num_leaves=7
num_cat=0
split_feature=8 2 2 2 2 2
split_gain=1.79885 0.644912 0.662716 1.56636 0.711329 0.443675
threshold=-0.14599999999999999 -0.26971990498795057 0.094418872712643806 0.29540369114189341 -0.10141403248879903 -0.0043964527594381993
decision_type=2 2 2 2 2 2
left_child=5 -2 4 -4 -3 -1
right_child=1 2 3 -5 -6 -7
leaf_value=0.0053216508081690836 -0.0074464319273829464 -0.0023214919972997451 -0.012689199535176159 0.0036022274444500605 0.010119565935046586 0.015611303641926498
leaf_weight=22 35 20 25 36 27 20
leaf_count=22 35 20 25 36 27 20
internal_value=0.00112392 -0.00154809 0.000363413 -0.00307459 0.0048255 0.0102215
internal_weight=185 143 108 61 47 42
internal_count=185 143 108 61 47 42
is_linear=0
shrinkage=0.05


Tree=55
num_leaves=7
num_cat=0
split_feature=20 16 0 16 16 16
split_gain=2.18393 1.55636 1.64066 1.06886 0.567474 0.14785
threshold=-1.9473684210526316 -0.17112525235350098 1.8450000000000002 0.04732867776576246 0.36104366896459189 -0.23632416432663442
decision_type=2 2 2 2 2 2
left_child=1 2 -1 -3 -5 -2
right_child=5 3 -4 4 -6 -7
leaf_value=0.0041278839768732296 -0.0061983211389319464 0.017478687112981624 -0.013395666720514949 -0.00097223738960635199 0.0087796142564288207 -0.01199507484720512
leaf_weight=34 22 22 22 26 35 22
leaf_count=34 22 22 22 26 35 22
internal_value=0.000611629 0.00368477 -0.00275637 0.0080306 0.00462309 -0.0090967
internal_weight=183 139 56 83 61 44
internal_count=183 139 56 83 61 44
is_linear=0
shrinkage=0.05


end of trees

feature_importances:
rest_day_score=99
home_away_score=97
defensive_positions_score=40
matchup_recent=34
matchup_score=25
humidity_and_elevation_score=23
vegas_odds_score=22
platoon_score=18
lineup_position_score=17
park_platoon=3
vegas_park=1

parameters:
[boosting: gbdt]
[objective: regression]
[metric: rmse]
[tree_learner: serial]
[device_type: cpu]
[data_sample_strategy: bagging]
[data: ]
[valid: ]
[num_iterations: 1000]
[learning_rate: 0.05]
[num_leaves: 31]
[num_threads: 0]
[seed: 0]
[deterministic: 0]
[force_col_wise: 0]
[force_row_wise: 0]
[histogram_pool_size: -1]
[max_depth: -1]
[min_data_in_leaf: 20]
[min_sum_hessian_in_leaf: 0.001]
[bagging_fraction: 0.8]
[pos_bagging_fraction: 1]
[neg_bagging_fraction: 1]
[bagging_freq: 5]
[bagging_seed: 3]
[bagging_by_query: 0]
[feature_fraction: 0.8]
[feature_fraction_bynode: 1]
[feature_fraction_seed: 2]
[extra_trees: 0]
[extra_seed: 6]
[early_stopping_round: 0]
[early_stopping_min_delta: 0]
[first_metric_only: 0]
[max_delta_step: 0]
[lambda_l1: 0]
[lambda_l2: 0]
[linear_lambda: 0]
[min_gain_to_split: 0]
[drop_rate: 0.1]
[max_drop: 50]
[skip_drop: 0.5]
[xgboost_dart_mode: 0]
[uniform_drop: 0]
[drop_seed: 4]
[top_rate: 0.2]
[other_rate: 0.1]
[min_data_per_group: 100]
[max_cat_threshold: 32]
[cat_l2: 10]
[cat_smooth: 10]
[max_cat_to_onehot: 4]
[top_k: 20]
[monotone_constraints: ]
[monotone_constraints_method: basic]
[monotone_penalty: 0]
[feature_contri: ]
[forcedsplits_filename: ]
[refit_decay_rate: 0.9]
[cegb_tradeoff: 1]
[cegb_penalty_split: 0]
[cegb_penalty_feature_lazy: ]
[cegb_penalty_feature_coupled: ]
[path_smooth: 0]
[interaction_constraints: ]
[verbosity: -1]
[saved_feature_importance_type: 0]
[use_quantized_grad: 0]
[num_grad_quant_bins: 4]
[quant_train_renew_leaf: 0]
[stochastic_rounding: 1]
[linear_tree: 0]
[max_bin: 255]
[max_bin_by_feature: ]
[min_data_in_bin: 3]
[bin_construct_sample_cnt: 200000]
[data_random_seed: 1]
[is_enable_sparse: 1]
[enable_bundle: 1]
[use_missing: 1]
[zero_as_missing: 0]
[feature_pre_filter: 1]
[pre_partition: 0]
[two_round: 0]
[header: 0]
[label_column: ]
[weight_column: ]
[group_column: ]
[ignore_column: ]
[categorical_feature: ]
[forcedbins_filename: ]
[precise_float_parser: 0]
[parser_config_file: ]
[objective_seed: 5]
[num_class: 1]
[is_unbalance: 0]
[scale_pos_weight: 1]
[sigmoid: 1]
[boost_from_average: 1]
[reg_sqrt: 0]
[alpha: 0.9]
[fair_c: 1]
[poisson_max_delta_step: 0.7]
[tweedie_variance_power: 1.5]
[lambdarank_truncation_level: 30]
[lambdarank_norm: 1]
[label_gain: ]
[lambdarank_position_bias_regularization: 0]
[eval_at: ]
[multi_error_top_k: 1]
[auc_mu_weights: ]
[num_machines: 1]
[local_listen_port: 12400]
[time_out: 120]
[machine_list_filename: ]
[machines: ]
[gpu_platform_id: -1]
[gpu_device_id: -1]
[gpu_use_dp: 0]
[num_gpu: 1]

end of parameters

pandas_categorical:[]
